svm_type c_svc
kernel_type linear
gamma 1.0
degree 3
coef0 0.0
nr_class 2
total_sv 3
rho 1.0560455620433609
label -1 1
nr_sv 2 1
SV
27.052956172688813 1:0.0102040816326531 2:-0.255102040816327
17.405517990558234 1:-0.357142857142857 2:-0.0510204081632653
-44.458474163247054 1:-0.0306122448979592 2:0.0102040816326531
