svm_type c_svc
kernel_type rbf
gamma 2.0
degree 3
coef0 0.0
nr_class 2
total_sv 9
rho -5.7281120751245
label -1 1
nr_sv 5 4
SV
100.0 1:0.397959183673469 2:-0.23469387755102
22.35789099541284 1:-0.295918367346939 2:-0.0918367346938775
13.461205650445224 1:0.336734693877551 2:-0.0306122448979592
55.21578778855738 1:0.214285714285714 2:0.193877551020408
82.5941851248047 1:-0.0510204081632653 2:0.255102040816326
-2.6780064885127435 1:-0.214285714285714 2:-0.397959183673469
-70.95106307070736 1:0.418367346938776 2:-0.397959183673469
-100.0 1:0.214285714285714 2:0.0714285714285714
-100.0 1:-0.0306122448979592 2:0.173469387755102
